item,CFeature0,CFeature1,CFeature2,CFeature3,CFeature4,CFeature5,CFeature6,CFeature7,CFeature8,CFeature9,CFeature10,CFeature11,CFeature12,CFeature13,CFeature14,CFeature15
CC0101EN,-0.048532024,0.030395513,0.003829349,0.004684638,-0.0013842718,0.051492423,0.014300996,0.027785443,0.09087328,-0.04725932,-0.008860389,0.037037544,0.014459919,0.04522906,-0.1026999,0.08824518
CL0101EN,0.06428952,0.04436129,0.04730732,-0.010565824,0.012116013,0.026927702,0.016909208,0.09585405,0.01816128,0.0128756575,-0.0038922662,0.06528559,0.062600166,0.11780392,0.01966468,-0.023348961
ML0120ENv3,0.034006655,-0.0022188204,-0.040371954,0.05664718,0.11073755,0.069198996,0.10462813,-0.02771253,0.052400053,-0.028607082,0.079522565,-0.008802924,-0.07061283,0.10105252,-0.023650473,-0.06534054
BD0211EN,0.009032916,-0.005793075,0.01700353,0.08086513,-0.07052217,0.057407506,0.02532806,-0.040609032,-0.00042686693,-0.06700318,0.102882214,-0.0010155602,0.0043740096,0.009933952,-0.020619502,-0.033025667
DS0101EN,0.038361404,-0.013257442,-0.03434659,-0.017217536,-0.003706927,0.0036344428,0.007511269,-0.0073329266,0.06775498,-0.037664197,-0.02665436,-0.03884251,-0.07586951,-0.039574318,-0.016650565,0.040290385
ST0101EN,-0.02828104,0.08587271,-0.012919456,0.057339434,-0.024919143,0.0407864,-0.046479456,0.060570452,-0.026980625,0.05765827,-0.02268286,0.13889988,0.012680844,0.029511064,-0.025743151,-0.011565971
DS0301EN,-0.07576883,-0.055618297,0.13331133,0.0038231204,0.020679045,0.018340435,0.036405213,0.0019006884,-0.022305997,-0.009530263,0.03583335,0.0064988337,0.015819784,-0.03011759,-0.005985136,-0.035610843
DS0105EN,-0.027087403,0.05327042,-0.03891805,0.046054833,-0.014710321,-0.028698143,0.015608957,-0.0114982175,-0.0022640284,0.024203325,-0.017494608,0.105823524,0.042848922,-0.032134444,0.056631994,0.065607496
BD0141EN,0.04697758,-0.00585757,-0.006548512,0.014965301,-0.0075686374,-0.16200514,-0.050847378,0.034070875,0.016165232,-0.042329803,-0.023324898,0.07820823,0.017982472,-0.058117986,-0.012394004,-0.093481585
CO0201EN,0.004203642,-0.08888084,0.15956096,-0.060811013,0.013005023,0.0401902,-0.055108123,0.053245064,0.006304135,0.0038040744,-0.005022039,0.09642401,-0.0029340005,0.040720746,-0.03178851,0.04773751
CB0103EN,0.043178353,0.028354665,0.038222592,-0.075770855,0.015546824,-0.029155588,0.0152232265,0.03712574,0.01511323,0.01476879,-0.029191513,-0.06082687,0.053313814,0.0024692153,-0.035085406,0.009807396
DV0101EN,0.0026005574,0.059270337,-0.009051764,-0.015539169,-0.022719467,0.009953636,-0.023739086,0.02476946,0.07883988,-0.016866663,0.043450866,0.018781625,-0.07327512,0.021869825,0.06275381,-0.08631225
DS0103EN,-0.071417615,0.002654602,0.037064828,0.04466875,-0.048069116,0.005717276,0.08044999,0.029320132,-0.016020982,-0.0035140738,0.070648946,-0.004988902,-0.05438149,-0.024132716,-0.025857246,-0.012927685
BD0123EN,-0.009045076,-0.09545576,-0.030254422,-0.052100733,-0.025582563,0.052518375,0.06602051,0.027536565,0.015593867,-0.03490786,0.07118647,0.017241815,0.0016547034,0.15167047,-0.026836095,0.015178115
BC0101EN,0.040022712,-0.034078546,-0.0056496994,0.07269219,0.012272255,-0.019626591,0.016785542,-0.016124964,0.09149839,-0.039918683,0.008817002,-0.015222456,-0.06424361,-0.048641704,0.018366152,-0.00010469138
TA0105EN,-0.04491921,-0.13480039,-0.061171357,0.11435309,-0.005520282,-0.0247094,-0.05613777,-0.07098332,-0.0836273,0.016636807,-0.026950408,-0.011608597,0.04490484,0.029037653,-0.015951062,0.021896219
ML0151EN,0.06060761,-0.019278951,-0.056787625,-0.057540957,-0.07207762,0.054528333,0.05990861,-0.030341797,0.018318307,-0.014406127,0.031295884,-0.058514625,0.061819166,-0.015887726,-0.027495304,0.050060235
BD0101EN,0.07703864,-0.04465182,-0.0028247954,-0.0058198376,-0.006437892,-0.034960624,0.018298903,0.03224291,0.023250125,-0.09441209,-0.024314158,0.011163831,0.034814566,0.057040855,0.01491175,-0.059084393
BD0111EN,-0.05768172,-0.08596234,-0.0328253,-0.02609791,0.03562954,-0.009940643,-0.081910625,0.011565629,0.02476054,-0.06643815,0.027868347,-0.049574897,0.061252132,0.047130413,-0.07945599,0.037808254
BC0201EN,-0.0068804966,-0.037896052,-0.012522185,0.0062781144,0.0007407898,0.14303932,-0.0029052717,0.054262415,-0.004566784,0.02474226,0.067128986,0.104728155,0.16008373,-0.06796596,0.024611343,-0.0278607
ML0122ENv1,-0.21726426,0.08588696,0.059416868,-0.034969512,-0.06447211,0.04661562,-0.10776109,0.032238092,-0.025501586,0.050776906,-0.04175998,0.009084169,0.038872425,0.100680366,0.030648572,0.017570922
BD0131EN,0.03809682,0.07570441,0.062278606,-0.094474144,0.027082944,0.036590304,-0.013388964,-0.00031298804,-0.10312536,-0.0005136654,0.038202837,-0.005074098,0.052376796,0.0010978512,0.027004909,-0.025277914
BD0121EN,-0.008826182,0.011018297,0.016711364,0.006515608,0.0093337055,0.062517315,0.013781507,-0.11904661,0.025775865,-0.026989602,0.03110693,0.007012631,-0.045038953,-0.006258849,0.08539898,0.09069211
PY0101EN,-0.02446877,-0.033107776,0.011111385,-0.016775087,0.013604128,-0.0011428788,-0.034910765,-0.035872288,-0.022448989,0.024087507,0.019603802,-0.021603689,0.0025697765,0.007544725,-0.00025544572,-0.067318186
BD0145EN,-0.06591787,-0.059398234,-0.033773933,-0.093992464,-0.058857333,0.09465533,0.10394335,0.012778612,-0.052861486,0.08090656,-0.03197893,0.034896806,0.06725485,0.001013338,-0.09019644,0.05597288
ML0101EN,-0.01854476,-0.05389815,0.027715763,0.0013596615,0.048326433,-0.023053829,0.039866496,0.12742244,-0.012003374,0.044356,0.07264103,0.10191465,0.0994441,-0.033280924,0.013996238,-0.051218044
CO0301EN,-0.020595055,-0.05347379,-0.025568021,-0.00232683,0.07650573,-0.07237633,-0.039274786,-0.06121522,-0.053895246,0.11882368,-0.032871,-0.01771177,0.021415621,0.034345586,0.020050613,-0.059398577
ML0101ENv3,0.009407299,-0.033608552,0.069062814,0.038677923,-0.0848073,0.0024293605,0.057545584,-0.0514237,-0.0033168397,0.0015628837,0.053685088,-0.04783271,0.04144268,0.048879094,0.05730558,0.028262578
DB0151EN,-0.0084003005,0.010588359,-0.14809223,0.013790251,-0.006578481,0.08017948,-0.033615492,0.0032307247,-0.06007799,0.088189185,-0.023409506,0.09831454,-0.018949576,0.010058243,0.066947214,0.0642298
CO0101EN,-0.07361448,0.058122676,0.0023210684,-0.03708655,-0.042602886,-0.022764115,0.027240064,0.024978353,0.07497034,-0.024054252,0.017284593,0.08928367,-0.05454839,-0.14343952,0.12616505,-0.014956684
RP0101EN,0.0020258897,-0.0052965432,0.0026917765,-0.09398802,0.020700626,0.032080796,-0.008138086,-0.0055366186,0.08070248,0.031897534,0.008944125,0.007911054,-0.014323587,0.02458746,0.020620156,-0.04639807
SC0101EN,-0.059692036,0.02200866,0.0664688,-0.011739313,-0.034744002,-0.04253383,0.013019466,-0.012735939,-0.023972474,-0.041169927,-0.039473422,0.064555414,-0.046282604,0.0038063638,-0.047260232,-0.07127191
PA0101EN,0.023779884,-0.06366762,0.057074215,-0.05239509,-0.07383555,0.01661462,-0.027875667,-0.036167167,-0.08577327,0.06835628,-0.063783,0.022682952,-0.13128717,0.031564098,-0.005038654,-0.011698321
LB0101ENv1,0.023207948,-0.064274475,0.05590693,-0.05909348,-0.08077217,-0.07976827,-0.1359366,0.031103102,0.017543891,-0.08672028,0.008126976,0.035179753,0.04251318,-0.020122474,0.15571018,0.03444308
ML0103EN,-0.02581896,0.074543566,0.1019781,0.09754713,0.04517361,0.017622344,0.0730611,-0.039250787,0.008938485,0.023926646,-0.076846965,-0.08729697,0.050336763,-0.045915052,0.060988586,0.017136823
CC0150EN,0.06328763,-0.16669795,0.022372533,0.033562947,0.00056330854,-0.009626989,0.09224189,7.719122e-05,-0.10152328,-0.10384459,-0.05650905,0.10022665,0.002349484,-0.06336139,-0.051342282,0.018378021
DS0110EN,0.07245074,0.027110592,-0.04880582,-0.0064120214,0.018011346,0.032302674,-0.025742017,0.12020899,0.07892523,0.10815386,0.07740684,0.09456248,0.08830225,0.07543366,-0.041106176,-0.016768305
DA0101EN,-0.0090528345,-0.04179287,0.028762903,-0.03370722,-0.027797068,0.053640593,-0.03909538,-0.007902747,0.0025115772,-0.021503417,0.04791394,-0.01315909,-0.01746647,0.04177192,0.07634444,0.026959224
ML0122EN,-0.07796798,0.051469024,0.24269614,-0.21055152,0.106421344,0.10343238,-0.16312966,-0.06601385,0.13604161,0.122491285,0.22739069,0.05472726,0.12041404,-0.09108811,-0.16126095,0.13562633
ML0115EN,-0.06784877,-0.060115974,0.006542931,-0.037349656,0.09017533,-0.040991962,0.08682797,0.009044792,-0.05637476,0.06656241,-0.027084585,-0.022378441,-0.01395989,0.014399972,-0.017961701,-0.0020327317
ML0111EN,0.04605103,-0.033387594,0.09248238,-0.06562533,-0.018339524,-0.07521187,-0.014730676,-0.14969172,0.05202036,0.0037039625,-0.06090067,-0.012080629,0.11477646,-0.010895395,-0.033469234,-0.061386235
ML0109EN,-0.037991963,0.013569476,0.029494453,-0.0027606818,0.05186855,-0.062335916,0.045871966,-0.031443283,0.04206972,0.11449767,-0.0007166582,-0.06456885,0.07959705,0.15312552,-0.082133695,-0.017487824
BD0223EN,0.10682651,-0.0039768233,0.08446554,0.06974216,0.0026521024,0.08469625,-0.13343927,-0.087835535,0.084877506,-0.10718194,0.23324344,0.00042388565,0.03296292,-0.08442984,-0.05410948,0.046793096
BC0202EN,0.024613122,0.015173954,0.08388084,0.03965165,0.033267226,0.063607246,-0.14835393,0.16411057,0.012786149,0.001422773,0.11989083,-0.049678516,-0.061091144,-0.033202697,0.10006133,0.06541482
CC0103EN,-0.052256744,-0.0004969834,0.0034627793,0.06423062,0.06157735,-0.0932057,-0.00038837962,0.027110312,-0.017826768,0.04750216,0.123641066,0.0627852,0.017343123,0.060102385,-0.081140384,0.012041259
COM001EN,-0.06735564,0.103993796,-0.012952635,0.15172459,0.0604663,0.05429602,0.025576845,0.04498855,-0.025288833,-0.07725425,-0.026558911,0.12755574,0.12117783,-0.15623374,-0.017396698,0.07996326
DB0101EN,-0.044915266,-0.02774305,0.01394419,0.05493567,-0.032015186,-0.008081931,-0.024740156,0.016093183,-0.006303338,-0.0027485671,0.12042373,-0.017209131,-0.0154532315,0.047755793,0.050459106,-0.048342515
CNSC02EN,-0.029173562,-0.027641097,-0.05846705,0.032004934,-0.07903497,-0.005579375,-0.08874347,-0.035813447,0.052266154,-0.027360456,0.091504626,-0.06502308,0.07494837,0.06172602,-0.031818278,0.073201455
DV0151EN,0.06378825,0.06545525,-0.056009516,-0.09699729,0.039227154,-0.007240236,0.03713278,-0.057051815,0.07659686,0.07515145,0.06963311,0.08546402,-0.07692129,-0.023089843,-0.015521875,0.04050315
RP0105EN,0.014063517,0.003184878,-0.07379087,-0.043402053,-0.041689068,0.00072582957,0.017744489,-0.104931414,0.15178117,0.05965625,0.029383725,-0.037258007,-0.029076936,0.047393385,0.093606636,0.036476318
LB0109ENv1,0.08357232,-0.016315373,-0.047453843,-0.019007925,-0.061014175,0.09246396,-0.05168661,0.07054388,0.029666252,0.00046533876,0.025085883,-0.055562187,0.006934527,0.12098261,-0.095983006,0.05092813
SC0105EN,0.054736074,-0.013181875,-0.0793219,0.045209464,-0.103596605,-0.01844759,-0.058887374,-0.080814786,0.1367582,0.07226243,0.036777943,0.112029985,-0.023903888,-0.03626422,-0.03201358,0.19219057
RP0103,-0.1567076,-0.036636308,0.018321214,-0.16905925,0.07184862,-0.13038282,0.113408946,0.054736663,0.0014083337,0.008007632,-0.014204953,-0.013508832,0.06098997,-0.05165941,0.21834587,-0.02374683
WA0101EN,-0.019798767,0.005916682,0.08968442,-0.024669934,-0.08276212,-0.022076,-0.00645575,-0.08741942,-0.057953764,-0.026511922,-0.030634493,0.050946515,-0.05300148,-0.12919398,0.038418237,0.026105799
RAVSCTEST1,-0.12049711,-0.046468303,0.008772801,0.22278504,-0.033930276,-0.062206592,-0.05011426,0.021113897,-0.18362841,0.054674957,0.065758675,-0.1145376,0.033302438,-0.029821314,0.15371324,-0.13328163
RP0151EN,-0.13148241,-0.1472187,0.011670236,-0.07753868,-0.0697699,0.10662726,-0.008634467,-0.08913916,-0.13112293,-0.036503255,-0.24717565,0.06375772,0.036080834,-0.0055577294,0.14238304,-0.025373992
CO0401EN,0.09275572,0.010199359,-0.03547813,0.03252998,-0.10038146,0.037997387,-0.104311585,-0.03673184,-0.051527444,-0.13326749,0.07056296,-0.010878365,0.09964881,0.015870612,0.07250802,-0.11041467
SC0103EN,-0.14705473,-0.019610608,0.014951531,0.09445678,0.06885314,-0.028065603,-0.0026084478,0.074212104,-0.03819284,0.005794693,-0.043844286,-0.015671048,-0.0013902786,-0.05038284,-0.035174742,0.048797496
LB0111EN,0.15937251,-0.062970676,0.14794004,0.060219463,-0.015091191,-0.03143459,-0.09787982,-0.07911451,-0.014101818,0.10287086,0.18076764,-0.02608654,-0.120087326,0.075010516,-0.007978126,0.21574219
DS0132EN,0.009931749,-0.19133562,-0.106605254,0.11244622,0.13628116,0.15194348,0.09819577,-0.120740585,-0.019530902,0.1875998,-0.06773164,0.12284653,0.14583398,0.040518157,0.12743174,0.22762455
CB0105ENv1,-0.078523755,-0.12496078,-0.05636886,-0.1586456,-0.048623204,0.03259788,0.07665929,-0.02525034,-0.121551454,0.07125072,0.043901637,0.029066205,0.0805585,-0.03761557,-0.010850307,0.06866279
CC0201EN,0.039976664,0.083448134,0.09746368,0.03796834,0.046238024,0.11520466,-0.039381135,0.024428671,-0.017135024,0.028776519,-0.009609983,0.019739907,0.004281687,-0.05018409,-0.0037669514,0.002762849
ML0120ENv2,0.068630874,0.0062764897,-0.026522301,-0.01802697,-0.18375136,-0.0044288076,-0.008049275,-0.05543049,-0.05800497,0.020159515,-0.052219428,0.10379689,0.019806562,0.007812589,0.07364736,0.0003806324
BD0143EN,-0.04744893,0.05644877,-0.013820493,0.0054054786,0.007852704,0.041858166,0.058191568,0.00078762113,0.064248264,-0.059063155,-0.1109074,0.0695119,0.13241634,0.04302055,-0.063843496,0.052972347
LB0105ENv1,0.06425822,-0.034262966,-0.0011736616,-0.126878,-0.003036062,-0.04471048,0.07287252,0.08641429,-0.11492207,-0.07700751,-0.10872207,-0.09237874,-0.051937353,0.046349205,-0.00930519,-0.11167652
ML0201EN,0.083253406,0.030146321,-0.057776876,-0.1039296,0.075081736,-0.07495891,-0.096329406,-0.053239413,0.024042835,0.17752218,-0.017239135,-0.07257304,-0.05508704,0.04660719,-0.01837784,0.086528316
BD0115EN,0.07352561,0.06945195,-0.009232412,0.016745837,0.025298199,0.0072699524,-0.0039039962,-0.051870115,-0.0013054726,0.066692844,-0.12085085,-0.042362344,-0.04096676,-0.035439182,-0.009973118,0.015817808
BD0221EN,0.05458247,-0.035378207,0.00984309,0.016019834,-0.04749605,-0.07351131,-0.06358225,0.021808408,-0.077831045,-0.051517308,0.0069574476,-0.020309823,-0.072453536,-0.035390954,0.052072987,0.012208989
ML0120EN,0.060664795,-0.018198658,-0.047356088,-0.034467246,0.089203306,0.14948219,-0.060320213,0.029645419,-0.05626515,0.10404591,0.016086824,0.06571961,-0.0581087,-0.08377481,0.024951499,0.021648753
BD0137EN,0.013464782,0.026295315,0.14543791,-0.012296732,-0.12330026,0.04092566,0.02453399,-0.058541078,0.003102309,-0.011364282,-0.20616908,0.031694796,0.006912039,-0.027099328,0.19039634,0.034400247
DAI101EN,-0.06937278,0.1767408,-0.08273033,0.079329535,0.17673518,-0.042458028,-0.22272402,0.10362301,0.041582014,0.09016806,0.05252203,-0.26891848,-0.13686071,0.067637265,0.026949733,-0.107173905
RP0103EN,0.02994126,0.1229403,-0.05324454,-0.0002977919,0.030286789,-0.09524184,-0.086469136,-0.041958403,-0.15018426,-0.043648083,0.12014336,-0.077253185,-0.14562511,-0.06490184,0.07239487,-0.117123805
BD0212EN,0.044547472,0.035295654,-0.051211733,0.079599455,-0.02262028,-0.06329351,0.06308304,0.072784476,0.029871743,0.09917967,0.049572315,0.049476184,-0.044525284,0.033820115,0.09238675,0.091370955
BD0135EN,-0.12831579,0.0014306807,-0.05008805,0.0360122,0.030363627,-0.056626882,0.014465527,0.057756636,-0.022186749,0.053461507,0.07896075,-0.13521451,0.0073956815,-0.071973294,-0.22003914,-0.019777328
CC0250EN,0.03262493,0.028735636,0.1292312,-0.067042194,0.038816724,0.089974664,-0.067574166,0.0055831377,0.12041724,0.13219288,0.014990253,-0.06722165,-0.10154884,-0.05699519,0.15974222,0.051221766
TA0105,0.03277333,-0.01877853,-0.04953886,-0.0033006053,-0.06408514,-0.0042549297,-0.1193331,0.03840087,0.0022421859,-0.021446902,-0.05158044,-0.114180125,0.17060733,-0.0014264953,0.06543291,-0.07152633
DS0321EN,-0.021336257,-0.01958512,-0.07924497,0.023222033,-0.0026121028,0.007164511,0.058381397,-0.17106818,0.055117007,0.07573667,-0.017269,0.028891074,-0.047157507,-0.0053349906,-0.061372984,-0.15151793
BD0133EN,0.005351384,-0.03518576,-0.07370081,-0.07594195,0.0702767,-0.044153202,0.06545885,-0.013240208,0.06479326,0.087469935,0.044416294,-0.017303906,0.11478041,0.07948865,-0.042805407,0.009612253
LB0107ENv1,-0.014460683,0.028210249,0.21870972,-0.10435521,-0.17243569,-0.015688797,-0.0037595474,-0.10833622,0.015532857,-0.004821266,0.06309467,-0.054555062,-0.20557551,-0.03545304,-0.048833553,0.009996232
ML0122ENv3,-0.08754944,-0.059021123,-0.14033733,-0.15643317,0.03178417,0.12785539,0.03461346,-0.0053155324,0.11989084,-0.06903866,-0.153853,0.18921348,-0.17815712,0.0064235106,-0.18831135,0.06861731
SECM03EN,0.008822849,-0.28258824,-0.059685577,-0.24603905,0.030701315,0.10302486,0.1294189,-0.045389235,-0.021428429,-0.08719985,-0.052013233,0.13185789,0.007841436,-0.020587867,0.06301927,0.120339245
TMP0105EN,-0.12834519,-0.042991668,-0.0050224694,0.05017359,0.06970475,-0.18134457,-0.09625725,-0.16186015,-0.095940486,0.1617979,0.0022527187,-0.04021648,0.017655132,0.09289908,-0.030672988,0.14684461
BD0151EN,0.08977308,0.07477536,-0.09962332,-0.07395894,0.16210653,0.124358684,0.08255482,-0.012786132,-0.16839719,-0.0020293074,-0.039723802,-0.088594645,0.06821068,-0.09349404,-0.04266365,-0.05275065
PA0109EN,0.19220553,-0.08711405,-0.0076353597,0.10785893,0.18083385,0.20076421,0.04748803,0.122216955,0.12078406,-0.018848235,-0.021839933,0.028154084,0.120715536,-0.17684345,0.006628903,-0.057834934
DJ0101EN,-0.1162574,0.0668844,-0.09608356,-0.06980414,-0.06455837,0.048021898,0.047798716,-0.15518962,0.046404045,-0.013798146,-0.062342502,-0.08895083,-0.013588918,0.11531666,0.06753447,0.08975725
CP0101EN,0.09772223,0.018451301,0.015228451,-0.03816006,0.025507363,0.055351287,0.13748582,-0.008319759,-0.021612843,-0.16963187,-0.102531746,-0.07198109,0.15396203,-0.034408614,0.062308062,0.05717244
CB0101EN,-0.20415847,-0.061665103,0.11671554,-0.07053956,0.2067483,0.034961853,0.13304561,-0.03586776,-0.120532215,-0.01046334,0.10619211,0.057491984,-0.051893473,-0.03117256,-0.077538975,-0.07661308
EE0101EN,0.021029597,0.119947486,0.045121387,0.06823468,0.032462172,0.10959338,0.040290438,0.11182076,0.20623313,0.022214668,-0.019313399,-0.0533175,0.09572808,-0.027936796,0.05366,0.05411676
CC0210EN,0.14440992,-0.16790128,-0.034691036,0.026938094,-0.08537103,-0.055250943,-0.16942401,0.058783546,0.024472252,0.08638824,0.15879163,0.121497095,0.008596308,0.06264565,0.04841072,0.16889237
AI0111EN,0.11850888,-0.034979735,0.062464144,0.025166938,-0.076363005,0.17647536,-0.03820612,0.046119746,-0.054607388,0.03145088,0.0018553677,-0.03156522,-0.051177904,0.04195741,0.038339358,-0.048021864
DW0101EN,0.0069522145,-0.0023611358,-0.03338223,-0.06600163,-0.038864817,-0.0690805,-0.15009911,-0.062128056,0.07565289,-0.018128935,0.033575997,0.012009193,-0.03408406,0.10395931,-0.001440663,-0.1420281
HCC105EN,-0.05017925,0.19433875,0.32947275,0.092584945,0.058634378,0.08397272,0.087172545,-0.028182566,-0.117079906,0.022934474,-0.12173533,0.07792263,0.08277718,0.22384712,0.0011584474,0.027493272
LB0103ENv1,-0.039061982,-0.12839259,-0.14074315,-0.09201055,0.09987669,-0.03576555,-0.064476036,-0.0808872,-0.012356615,-0.17294304,-0.030320639,-0.028588086,0.0934315,-0.13370267,-0.050154645,-0.043682553
SW0101EN,-0.08028001,-0.08452003,0.0256002,-0.0030478786,0.14204288,-0.013864599,-0.015061906,-0.08302639,-0.016615473,0.093960054,0.022548784,-0.004768767,-0.02516784,-0.11130995,0.11938288,-0.008186553
DS0201EN,0.08983983,0.0009393293,0.033783793,0.044633817,-0.11451318,-0.03664517,-0.1152414,-0.12519287,-0.03567777,-0.010835452,0.0471209,-0.033802792,-0.024390083,-0.092077225,-0.115260705,0.085482754
HCC104EN,-0.044595566,0.21591401,0.09118663,-0.034114983,-0.09597449,0.052477226,0.20245491,-0.06692257,0.15164843,0.017969856,0.17411295,0.087783225,-0.04300812,-0.15586928,-0.1227663,0.062889196
SW0201EN,0.013284076,0.16400237,0.030499363,-0.18217191,0.066415645,-0.1463346,-0.018520197,-0.12377685,-0.100689575,0.06340021,0.14651707,-0.11270626,-0.22422555,0.1403455,0.002135848,-0.019705959
TA0106EN,0.1451499,-0.0800104,0.004225182,-0.01569666,0.041637532,-0.048840296,0.08817646,-0.031526435,0.074521765,0.026533056,-0.1893603,0.062442265,-0.20056446,0.19222288,-0.07343825,0.008023566
DE0205EN,0.056217555,-0.082696214,-0.087714046,0.08972038,-0.018802911,0.015539063,-0.08062958,-0.119861715,-0.11515661,0.066143855,-0.06527998,-0.093031354,-0.09654364,-0.031223867,0.028589098,-0.16623202
IT0101EN,0.15608391,-0.028068578,-0.18101743,0.064791426,0.10057389,0.1274706,0.00073659,0.034602422,0.070099704,-0.018661857,0.050565783,-0.09742387,-0.048317056,0.05544628,-0.09584467,-0.033710875
OS0101EN,0.049481977,-0.16074565,-0.19334681,0.04738349,0.029492175,-0.06793424,0.03990253,-0.03474238,-0.039323874,-0.056826703,0.30792055,-0.09393268,-0.123896755,-0.15534729,0.13647304,-0.019608846
BD0153EN,0.063371934,-0.005339045,0.07740709,0.12645143,0.15775387,-0.021256454,0.044208713,-0.02588034,0.031237045,-0.038413025,0.077248015,-0.093215115,-0.022405399,0.013858321,-0.06573607,-0.07088242
WA0103EN,-0.09129039,0.2711763,-0.15383361,0.13975723,-0.01418107,0.08797523,0.25110534,-0.103203334,0.17665416,-0.061432082,0.18453012,-0.13406503,-0.14965096,0.14362076,0.015835024,0.13979433
DP0101EN,-0.008111086,-0.020359548,-0.064359315,-0.17668682,0.010839715,0.089994974,-0.034357503,0.02741035,0.18938899,-0.23687866,-0.07460241,-0.088584065,-0.04203168,0.065861546,0.09491822,-0.15137339
TMP0106,-0.068577684,-0.1671306,-0.020162357,-0.09170822,0.0047178613,-0.06297952,0.21077977,0.4123337,0.027451389,-0.068901464,0.020593783,0.1707103,0.11242994,-0.17545207,-0.1430472,-0.09403796
CB0201EN,-0.07870692,0.033526152,-0.12930627,-0.038007036,-0.08257187,-0.07703686,0.08471717,0.22457954,-0.11910129,0.05099029,-0.21844324,-0.07417443,0.18396924,-0.15532695,0.08384331,0.013143994
GPXX0T0FEN,0.07299134,0.07847283,0.12550916,-0.384432,0.15822645,-0.049942695,0.06761106,-0.006904473,0.075476155,-0.07178747,0.0030460088,0.18528475,0.3398431,-0.006184759,0.15718251,-0.05729048
DB0111EN,0.070089795,-0.05940566,0.042375363,-0.11052579,-0.18391833,0.01687692,-0.021320073,-0.13643478,0.01957947,0.016193694,0.038690243,0.09867975,0.044375923,-0.35933226,-0.0948362,0.029695338
PHPM002EN,0.17875321,-0.086974464,0.0019484715,-0.07092632,0.08419221,0.1693014,-0.055058155,0.00025119004,-0.14435092,0.16911882,-0.1559737,0.03733976,-0.028400663,0.023426611,-0.0806629,0.05475864
TMP107,0.056974247,-0.08486334,-0.14401017,-0.055255212,0.18010212,0.043003738,0.063085034,-0.18681921,-0.095987074,0.024658663,-0.017240163,-0.018149585,0.027573463,-0.0022289234,0.113375135,-0.03934866
DA0201EN,-0.13001932,-0.06787711,-0.12533247,-0.03238167,0.097771265,-0.13330804,-0.101961866,0.03889816,0.035647344,0.0945822,-0.045513563,-0.011153588,0.06571275,-0.104587846,0.14917025,0.10034603
ST0201EN,-0.018931966,0.121255316,0.017731613,-0.13703859,-0.055765633,0.11678114,-0.074520364,0.11393621,0.0136281345,0.059437245,-0.0055819512,0.018181538,-0.21168107,0.12981042,0.16157165,-0.06053973
DX0106EN,0.10162158,0.084173515,-0.101465434,0.08855809,-0.08860403,-0.12223733,0.14786305,0.06942705,0.17929558,0.08074221,0.06539972,-0.09140388,0.1479646,-0.059079014,-0.08798816,-0.09542356
CC0271EN,-0.09547459,0.0661157,-0.17809807,-0.3492197,0.012953726,-0.17457385,0.08625755,0.02101238,-0.033391763,0.11842022,-0.09902861,0.08584337,0.17333026,-0.06770353,-0.007018877,0.07009622
DX0107EN,0.05059637,0.07338723,-0.065757975,0.00023362116,-0.0042746225,-0.045552064,0.23426396,0.10915086,0.1538378,0.016488217,0.011795036,-0.057717454,-0.08977687,-0.02736504,-0.24024841,0.036660116
BENTEST4,2.5539505e-31,-1.8445886e-30,-6.1367e-32,6.8633537e-31,-5.206099e-32,-1.0717016e-30,-5.0256794e-31,-1.6732217e-31,1.0276078e-30,6.129118e-32,-1.0568887e-30,-8.445018e-31,3.5543606e-31,-5.264669e-32,-6.606785e-31,-7.4705934e-31
PA0107EN,-0.062617116,-0.0671665,-0.042674113,0.15195034,-0.061499946,-0.001870166,-0.008962249,0.06056376,0.20746298,0.09666528,0.053361867,0.13551039,0.22665793,0.04888747,0.0061782044,-0.037381
PA0103EN,0.15613335,-0.12233952,-0.04791581,-0.043182306,0.30829242,0.044632368,0.15524456,-0.1834575,-0.26879203,-0.2796587,-0.27230614,0.011425652,-0.27711752,-0.08452656,-0.083352774,0.2544643
DA0151EN,-0.055831794,-0.1364812,-0.040294424,0.0043681953,0.027738439,0.07998085,0.07497737,0.08647159,0.04775692,-0.21766388,0.1696432,-0.095646955,0.090378985,0.09552435,-0.053713445,0.054930914
ST0301EN,-0.19088963,-0.06845781,0.06709455,-0.034391757,0.18241447,-0.3588695,-0.018366653,-0.07859057,0.030289477,0.10880978,0.090543844,0.112855,-0.20052901,-0.017785104,-0.12758596,0.08950448
TMP0101EN,0.49092224,-0.03902275,0.018647749,-0.049616996,-0.27359617,0.0755352,-0.048574403,-0.01076051,-0.29910585,-0.06162063,0.15558773,0.00075961306,-0.15855566,-0.13780688,0.25725254,-0.0907782
DB0113EN,0.007770641,0.03639882,0.25724807,-0.08558467,-0.41503373,0.058177736,-0.022969488,-0.10903925,-0.106111184,-0.25375786,0.00862489,0.04564069,-0.07362444,0.13841505,0.2433452,0.05987021
DX0108EN,-0.09123597,-0.14262779,0.13630953,-0.032082006,0.16134931,0.07046595,-0.054106858,-0.035320804,-0.07657112,-0.17510866,-0.11412838,0.1376176,-0.08179445,0.17783403,0.09534969,0.17007692
DS0107,-7.061976e-31,1.8905809e-30,5.222958e-31,1.7664797e-30,-1.7631061e-30,-1.6255349e-30,1.2012373e-30,-1.4623298e-30,1.4900885e-30,9.619934e-31,-1.7343287e-30,-1.8896032e-30,5.973127e-31,9.508432e-31,5.3245133e-32,1.1959261e-30
DB0115EN,0.07760648,0.14587484,0.018521937,-0.11479289,-0.02743702,0.11686456,-0.010056899,0.051209502,-0.09038614,0.21585621,-0.19797452,-0.13729781,-0.028963093,0.07496564,-0.05699598,-0.030627675
GPXX0QR3EN,0.09433526,0.08989034,0.111056514,0.05040049,-0.094641104,0.094314,-0.063145354,-0.057472292,0.09466306,0.052164566,0.13285613,0.094078034,0.052588154,0.040837593,0.029518077,0.023862733
